bicycle -0.36678 -0.052456 0.025192 0.47826 -0.18977 -0.19226 0.36077 0.39268 -0.23409 0.089401 -0.22851 -0.71662 0.14985 -0.046455 -0.38778 -0.42491 0.24226 -0.061348 -0.21198 0.033963 -0.42321 -0.55278 -0.025497 0.10443 -0.11968 0.049849 0.17602 0.2729 -0.10155 0.1501 0.27407 0.42814 -0.22272 -0.069991 0.9766 0.63461 0.069007 0.14213 0.24943 0.54817 -0.10468 0.37271 0.22326 -0.099006 0.29314 0.51751 0.63668 -0.47994 -0.1067 0.51427 -0.43638 0.42199 0.11966 -0.086453 0.1432 -0.026087 -0.10043 -0.30682 0.67629 0.37226 0.23951 -0.43745 0.64249 0.36218 0.28233 -0.64534 -0.23151 -0.039794 -0.30164 -0.30829 -0.41069 -0.16994 0.345 0.036091 -0.067392 -0.046556 -0.1499 0.058866 -0.30245 -0.0402 -0.29972 0.50704 0.04775 -0.45576 0.12551 0.034313 -0.24261 0.07562 -0.4975 -0.085094 -0.11806 -0.39158 -0.010302 -0.62532 0.64077 -0.42603 0.10981 -0.58433 0.11898 0.096734 
bell -0.47402 0.60893 0.29997 0.17835 0.034077 -0.15194 -0.07423 0.094197 -0.25848 -0.19594 -0.26988 -0.080051 0.18738 0.095924 0.14163 -0.041636 -0.035653 0.27707 -0.34505 -0.59238 0.59534 -0.59854 -0.20501 0.76819 -0.46697 -0.027928 -0.009824 -0.71189 0.33519 0.39451 0.34117 0.46542 0.11926 -0.12815 0.98226 0.41569 0.29257 0.097509 -0.21766 0.23337 -0.47957 -0.11664 -0.36849 0.013503 0.36626 -0.058452 0.57121 0.090008 -0.40914 0.24661 -0.20076 0.503 -0.12102 -0.14724 0.053921 0.4766 0.15943 0.13114 0.45363 0.14212 0.20951 -0.59754 0.72326 0.16482 -0.19923 -0.15036 -0.29862 0.041258 -0.34575 0.3821 -0.16097 -0.0072881 -0.25975 -0.080101 0.31343 0.14441 0.080063 0.31044 -0.059115 -0.28047 -0.3902 0.12763 -0.034294 0.068451 -0.29531 0.01256 0.090517 -0.17457 -0.3269 -0.053645 -0.76402 -0.11953 -0.0078356 -0.24105 0.49391 0.12801 -0.039782 0.27236 0.072915 0.048094 
house -0.16756 -0.05373 0.032202 0.07489 0.53806 -0.20921 -0.36463 -0.19576 0.023463 -0.013666 -0.26824 -0.17718 0.63878 -0.1531 -0.32763 -0.17741 -0.22027 0.35403 -0.45155 -0.076051 0.46092 -0.33415 -0.26443 0.56387 -0.020126 0.1453 0.40176 -0.22828 0.24346 -0.11841 -0.46064 -0.027013 -0.61765 -0.043041 0.70062 0.19574 0.011026 -0.030078 0.47421 0.25677 -0.11206 0.10915 -0.19876 0.12622 -0.0251 0.16686 0.28772 -0.16829 0.043563 -0.040367 -0.37973 0.17742 -0.20081 0.0038524 -0.2226 0.13649 -0.13357 -0.37985 0.031228 0.13586 0.33614 -0.75182 0.50691 0.074856 0.38282 -0.012844 -0.060986 0.021807 -0.0040269 0.34757 0.024326 -0.24655 -0.16183 -0.02597 0.26179 0.33867 0.29517 -0.33457 -0.17081 0.50797 -0.24438 0.038817 0.14399 -0.25802 -0.097741 -0.20252 -0.079814 -0.14859 -0.072272 -0.11711 -0.20968 -0.18244 0.51979 -0.46813 0.2126 0.28744 -0.69647 -0.12117 -0.60755 -0.15024 
church -0.13477 0.42541 -0.23845 0.20025 0.49928 -0.026778 -0.31433 -0.028383 0.30397 0.26263 -0.12886 -0.089075 0.7034 -0.29715 0.13457 -0.34173 0.050637 0.28318 -0.20869 0.084966 0.1452 0.13935 0.021609 0.16167 0.051324 0.45042 0.36056 -0.26541 0.60926 0.081823 0.18635 0.35857 -0.59265 -0.11558 0.41575 0.14587 -0.027168 0.22903 -0.19621 0.18221 -0.13972 0.072973 -0.13943 0.15952 0.54038 0.36864 0.21756 -0.13062 -0.036905 0.3898 -0.42162 0.23211 -0.27507 -0.4343 -0.32411 0.80233 0.074325 -0.076467 0.14639 0.10662 0.80743 -0.59265 0.25466 0.19097 -0.10069 -0.55022 0.0052883 0.55155 -0.60512 0.62313 0.04647 0.31648 0.063476 0.20914 0.1213 -0.44276 0.40399 -0.46176 0.59199 0.15531 0.34783 -0.024963 0.23841 0.062543 0.1028 -0.20091 0.41334 0.50852 0.15236 -0.176 -0.21457 -0.57737 0.36977 0.046738 0.12685 -0.052094 -0.28067 -0.44229 -0.33004 -0.13262 
telephone -0.55398 -0.27304 -0.32512 0.56257 0.42045 0.33791 -0.066994 -0.41202 -0.078711 0.48745 0.015135 -0.14604 0.36155 0.1482 -0.0018267 -0.62518 0.21895 0.31384 -0.27543 -0.74532 -0.092249 0.042987 0.026763 0.75575 -0.26838 0.12181 0.78817 0.14077 0.15728 -0.2204 -0.28589 0.24572 -0.055398 -0.19953 0.95444 0.46103 -0.17538 -0.11597 -0.0545 0.38237 0.0063247 -0.26316 -0.41071 0.33258 0.14473 0.17416 0.26201 -0.061623 0.2646 -0.12013 -0.54172 0.27713 -0.15468 -0.39334 0.067473 0.21744 0.0040537 -0.11468 0.078611 -0.074395 -0.018053 -0.33776 0.31561 -0.2339 -0.58782 -0.3504 -0.38974 -0.16268 -0.13653 0.49984 -0.41521 -0.072493 0.092536 0.074644 0.22783 -0.11313 0.48804 0.12066 -0.52048 -0.43096 -0.38324 0.13554 0.69795 -0.71057 0.23489 -0.34464 -0.1704 -0.017595 -0.51597 -0.56732 -0.15494 0.15228 0.39888 -0.16408 0.26315 -0.033272 -0.23542 -0.08709 -0.56733 0.025607 
ant -0.1388 0.20936 0.040725 0.12668 0.096436 -0.37578 -0.43218 -0.33893 -0.2986 0.22262 -0.26978 -0.68932 -0.020144 0.010052 -0.16554 0.26701 -0.11804 -0.088011 -0.14407 -0.21566 0.8807 -0.14843 0.0091939 0.31799 -0.23531 -0.53084 0.23851 -0.10066 0.31721 0.45423 -0.25948 0.45364 -0.048317 0.13095 0.63204 0.066233 -0.095437 0.38674 0.12279 -0.045613 -0.41747 0.27504 -0.091589 0.50336 0.075631 0.29197 0.28891 0.0042568 0.31779 0.15138 -0.066471 0.18184 -0.24051 -0.031173 -0.011169 -0.24824 0.002404 -0.017271 0.68003 0.38617 0.35133 -0.14657 0.47898 0.081968 -0.47722 -0.1755 -0.22262 0.22148 -0.03431 0.071511 0.29291 -0.36545 -0.66941 0.24213 0.36638 0.26096 0.10017 0.24878 0.018846 0.29436 0.062937 0.072316 0.39823 -0.75664 -0.27618 0.28318 0.23755 -0.03563 -0.2745 -0.033642 -0.057456 0.035531 0.71145 -0.23798 0.028027 0.042997 -0.47569 0.12115 -0.71421 -0.49846 
lettuce 0.13758 0.77653 0.14976 0.070638 -0.23675 -0.098401 -0.52333 -0.1129 -0.4131 -0.10447 0.18515 -0.5874 -0.3001 -0.48681 0.44575 0.34897 -0.074138 -0.49708 -0.61382 -0.48542 0.89257 -0.049815 -0.00074088 0.28107 -0.36051 -0.25338 0.22563 -0.31432 0.36487 0.0041439 0.051181 0.58902 -0.083902 0.73034 0.4308 0.32775 -0.86222 0.22496 0.37479 0.73637 -0.93079 0.35481 0.53974 0.68918 0.26778 -0.14269 0.71752 0.53053 -0.34189 0.51949 -0.89476 0.17435 0.34854 0.34321 0.21658 -0.16451 0.23068 0.25883 0.4547 0.10052 0.68474 -0.99247 0.45836 -0.20575 0.055126 0.12446 0.42122 0.56288 0.21126 -0.098483 0.17365 0.24205 -0.49138 0.096622 0.093283 0.4854 0.26385 0.23286 -0.24686 0.27349 0.035538 0.22913 -0.33691 0.18373 -0.41037 0.024677 0.21828 -0.010274 0.27303 -0.41787 -0.884 0.32633 0.15314 -0.21955 0.71713 -0.5983 -0.015007 0.26911 -0.76071 0.36382 
carrot -0.017057 0.40117 0.0057695 0.33326 0.00073033 0.022544 -0.49778 -0.11943 -0.14501 -0.33185 -0.018952 -0.35421 -0.38424 -0.10746 0.69235 0.075634 -0.14097 -0.61945 -0.5155 -0.46161 1.1966 -0.094323 0.036026 0.26886 -0.88607 -0.36651 0.31694 -0.042688 0.34186 0.38517 0.41958 0.30091 0.056953 0.54038 0.14442 0.51569 -0.64976 0.095246 0.2608 0.39158 -0.75053 0.11181 0.20337 0.58884 -0.046941 0.12463 0.45212 0.19724 -0.37327 0.44281 -0.48338 0.33724 0.10653 0.222 0.085257 -0.26782 0.32807 0.36124 0.24201 0.34079 0.6815 -0.77168 0.40306 -0.20039 -0.10262 -0.031205 -0.053881 0.36234 -0.025579 0.043931 0.051178 0.010837 -0.48384 0.23461 -0.037645 0.11187 0.07633 0.10493 -0.10959 -0.25612 -0.087508 0.18215 -0.11053 0.2957 -0.16125 0.24752 -0.15923 -0.083578 -0.19326 0.025968 -0.95179 0.017006 -0.082947 -0.050611 0.66273 -0.03243 -0.51889 0.21703 0.0077269 0.14605 
beetle -0.22967 0.33971 0.18514 0.62363 0.089323 -0.44006 -0.36809 -0.16159 -0.11213 0.12287 -0.24915 -0.51186 -0.22485 0.077424 -0.091453 0.30445 -0.30516 -0.20887 -0.10705 -0.38006 0.72377 -0.51399 0.15855 0.027244 -0.72074 -0.34174 0.09512 0.019309 0.5174 0.48768 0.41957 0.35287 0.080448 -0.094481 0.47246 0.096911 -0.35787 -0.15131 0.27596 -0.06692 -0.56704 0.19355 0.0097012 0.14039 -0.11579 0.20425 0.44251 -0.19689 0.32754 0.26156 -0.27281 0.88781 -0.50438 -0.15032 -0.16355 -0.23361 -0.13846 0.11543 0.65991 0.65071 0.49242 -0.21532 0.61076 0.35726 -0.57079 -0.050492 -0.38422 0.14526 0.43465 -0.12244 0.29291 -0.56346 -0.7375 0.17844 0.36667 0.34835 0.23191 0.15159 -0.46811 0.33115 -0.18992 0.20671 0.23604 -0.33809 0.010193 0.12195 0.33357 -0.31308 -0.89603 0.41139 -0.092558 -0.55942 0.29963 -0.56777 0.55104 -0.32957 -0.15894 0.14317 -0.0033142 0.13983 
table -0.039139 0.35593 -0.16289 0.039693 0.25996 0.34222 -0.21178 0.0017752 0.21148 -0.33614 -0.27076 0.075833 0.31045 0.060801 0.55782 -0.38165 0.21829 0.16327 -0.013555 0.12147 0.37711 -0.081881 -0.17379 0.41372 -0.29339 0.15028 0.32989 -0.64225 0.21917 0.18661 0.25803 -0.11584 -1.0853 -0.029567 0.34612 0.28219 0.1324 -0.15534 -0.053097 0.21835 -0.23701 -0.37041 0.13545 0.28769 0.0075566 -0.0095456 0.26543 -0.029134 -0.056074 0.22098 -0.38488 0.23627 0.33141 0.33452 0.23665 0.21698 0.15273 -0.19035 0.27404 0.42862 0.53047 -0.74352 0.85013 -0.23033 -0.072208 -0.19057 -0.14148 0.031965 -0.017536 0.0087061 -0.31205 -0.020298 0.14107 0.12122 -0.31834 0.10603 -0.024482 -0.19621 -0.68839 0.033787 -0.31854 0.38408 -0.012906 -0.34645 -0.054013 0.19105 -0.070268 0.30348 0.30617 0.23477 0.27472 -0.03437 0.15582 -0.95379 0.11456 0.36356 -0.46632 0.12043 -0.55263 0.13775 
skirt 0.04583 0.19401 0.0022346 -0.16424 0.15342 -0.16945 -0.46031 -0.3226 -0.44642 -0.072873 -0.24368 -0.51074 0.42565 -0.20234 0.35602 0.074724 -0.11713 -0.059359 -0.385 -0.33219 0.068508 -0.69403 0.26457 0.24141 -0.51988 -0.089437 -0.15352 0.088419 0.22241 0.45048 0.50847 0.37746 -0.31301 -0.11331 0.52001 0.36924 0.15713 0.31532 0.10763 0.22812 -0.692 -0.046522 0.25794 -0.0095814 0.4546 0.48387 0.085882 0.12701 -0.43706 -0.30973 -0.8371 0.80294 0.36429 0.70744 0.12085 0.098653 0.25695 -0.59774 0.023579 0.62172 0.059959 -0.77452 0.29484 -0.38103 -0.27164 0.21245 0.43858 -0.50576 0.031629 0.018777 -0.29069 0.072789 0.018655 0.32127 0.40269 -0.00048542 0.098948 -0.17004 -0.16483 -0.53004 -0.18865 0.9972 -0.44261 0.49367 -0.39041 0.16342 0.079084 0.51495 -0.083338 -0.14242 0.3 -0.5492 0.59051 -0.3409 0.40732 -0.75076 -0.39307 0.24793 -0.19075 0.3451 
bee -0.31658 0.55158 -0.0071372 0.25223 0.027327 -0.45256 -0.44098 -0.18695 -0.22246 0.23128 -0.39335 -0.32484 0.19249 0.65295 0.10611 0.2241 -0.010438 -0.1026 -0.27744 -0.0078221 0.53363 -0.52281 0.010635 0.24523 -0.26868 -0.64587 0.14884 0.056695 0.69739 0.47997 -0.27451 0.29239 0.047913 0.27785 0.14419 0.12076 -0.15757 0.11535 -0.065266 0.064781 -0.33335 0.46147 -0.14988 0.28236 0.29551 0.29467 0.29928 0.26865 0.14174 -0.015863 -0.34203 0.5941 -0.01759 -0.047828 0.057179 0.16204 -0.078495 0.074951 0.22233 0.38078 0.47991 -0.28876 0.52949 0.072194 -0.19112 -0.48221 -0.34154 0.54798 0.27947 0.14273 0.48164 -0.15507 -0.36628 0.32076 0.24545 0.023966 0.25858 0.42165 -0.075766 -0.092383 -0.26634 -0.013539 0.32163 -0.40689 -0.37956 0.15989 0.10612 0.15658 -0.72482 0.18099 -0.128 -0.22348 0.56104 -0.39872 0.13189 0.24255 -0.40568 0.34035 -0.061901 -0.044899 
saw -0.44971 0.59741 0.31389 0.14669 0.21129 0.010003 -0.18842 -0.104 0.12277 0.015804 -0.25522 -0.10618 -0.39264 -0.194 -0.46669 -0.082234 -0.46689 0.24004 -0.2737 0.304 0.27597 0.27706 -0.37243 -0.083427 -0.43454 -0.059235 -0.034715 -0.18606 -0.13175 0.030378 0.19586 0.48027 -0.31681 -0.51266 0.39446 0.19429 0.030457 -0.076686 0.063471 0.12658 -0.19468 0.65682 -0.36447 -0.0069002 0.15002 -0.088082 0.22098 0.42598 0.0090584 0.21179 -0.25273 -0.10497 0.0096934 0.10968 0.18881 0.075561 0.26846 -0.22445 -0.21301 0.547 0.1591 -0.33218 0.0027165 0.12389 0.12784 -0.63989 -0.37489 -0.12046 -0.10808 0.096248 0.13992 -0.45383 0.069281 0.18318 -0.04429 -0.11023 -0.074599 -0.27566 -0.048258 -0.1085 -0.43081 0.14103 0.27192 -0.1045 -0.033191 -0.017302 -0.34514 0.12215 -0.21614 0.27732 0.4293 -0.21905 -0.1381 -0.17112 -0.023746 -0.18185 -0.93309 0.19244 -0.54779 0.041885 
airplane -0.50503 0.029418 -0.25162 0.10277 -0.22248 0.19274 -0.23268 0.013061 0.10508 0.028563 -0.38438 -0.66695 0.097067 0.1419 -0.45892 -0.41648 0.46799 0.419 0.02085 0.41025 -0.043187 -0.16217 0.35135 0.034045 -0.43934 0.3289 0.69114 0.34185 0.0020742 0.007161 0.12943 0.15511 -0.38849 -0.06851 0.69359 0.79132 -0.093413 -0.10747 0.14089 0.37387 -0.30122 0.42189 -0.15317 0.032124 -0.28232 0.32589 0.8841 -0.078465 0.42008 0.04919 0.06957 0.38656 -0.082485 -0.17329 -0.41475 -0.10265 -0.070842 -0.092932 0.30081 0.10623 0.03443 -0.54573 0.48453 -0.043303 -0.15231 0.08813 -0.89235 -0.05374 -0.34169 -0.15785 -0.42711 -0.38596 0.058525 0.057457 0.10265 0.45541 0.049798 0.049336 -0.46801 -0.13787 -0.24628 0.15377 0.27048 -0.32881 0.11306 0.10131 -0.4418 0.18622 -0.23904 0.1166 0.12154 0.28173 0.63775 -0.84395 0.54069 0.042102 0.11808 0.14795 0.12612 0.28047 
barn 0.034637 0.051367 0.42582 0.26352 0.34932 -0.19063 -0.45381 0.26017 0.10943 -0.087061 -0.48238 -0.10229 0.56848 -0.079417 -0.32597 0.09348 -0.12437 0.20802 -0.26704 -0.26531 0.45229 -0.59568 0.010727 0.44417 -0.24689 0.27829 0.26642 -0.23597 0.24015 0.098048 0.18734 0.4313 -0.69419 -0.056372 0.77248 0.036674 -0.074757 -0.054829 0.22602 0.28999 -0.41548 0.14892 -0.22899 0.21985 -0.15159 0.42913 0.20234 -0.020864 0.41101 -0.17709 -0.65137 0.26491 0.16784 -0.11255 0.10514 0.29832 -0.27656 -0.14875 0.6572 0.46719 0.49601 -0.69551 0.42005 0.27968 0.39967 -0.25694 -0.17614 0.22205 0.24169 0.2164 0.2558 -0.39359 -0.29621 0.056232 0.16531 0.37267 0.32368 -0.046863 -0.24937 0.51285 -0.092126 0.27466 0.060251 -0.27926 -0.32401 -0.20953 -0.096679 -0.16402 0.1422 0.20335 -0.2471 -0.33251 0.60472 -0.46363 0.52935 0.1395 -0.48111 0.10839 -0.15266 0.063196 
horse -0.30153 -0.04205 0.12485 0.26625 0.19493 -0.10351 -0.09761 0.32345 0.15165 -0.018587 -0.32691 -0.56749 0.25744 0.42413 -0.11342 -0.12592 -0.25193 -0.035784 -0.30298 -0.15585 0.49479 -0.80107 0.045501 0.21663 -0.18554 0.11069 0.18616 0.21354 0.18335 0.49329 0.1744 0.36492 -0.37259 -0.26742 0.51481 0.14173 -0.14632 -0.11811 0.15431 0.35567 -0.70534 0.43861 0.013507 -0.14188 -0.13169 0.57042 -0.0011137 -0.09828 0.068951 -0.084849 -0.53321 0.17221 0.057165 -0.35785 -0.11323 -0.0048733 0.062807 -0.10168 0.5631 0.48268 1.0394 -0.16915 0.22627 0.33362 0.043274 -0.28708 -0.081601 0.29495 -0.15751 -0.067489 0.23669 -0.57715 -0.1674 0.21319 -0.17889 -0.044777 0.20417 -0.00975 -0.2204 0.020347 -0.11143 0.44867 0.027471 -0.34547 -0.12771 0.43235 -0.42411 -0.15535 -0.29605 0.43398 -0.16718 -0.3357 0.28602 -0.32774 0.68404 -0.06004 -0.040885 0.15079 0.47291 0.018159 
apartment -0.017481 -0.016562 -0.13721 0.22551 0.34706 -0.005966 -0.44693 -0.243 -0.0654 0.3419 -0.32845 -0.41953 0.76587 -0.57124 -0.33462 -0.027999 -0.42295 0.029421 -0.49228 -0.20395 0.37268 -0.32299 -0.74593 0.72589 0.012669 0.2673 0.74867 -0.27211 0.068411 -0.17774 -0.36821 -0.27388 -0.82353 -0.15207 0.73065 0.27968 -0.086139 -0.06078 0.39737 0.32351 -0.069197 0.033569 -0.15774 0.18457 -0.2545 0.06808 0.24593 -0.143 0.24523 -0.24256 -0.62901 -0.17174 -0.43511 0.10183 -0.3323 -0.31218 0.0087022 -0.70118 -0.069199 0.27341 0.074628 -1.0761 0.64236 0.1898 0.25818 0.038526 -0.18394 -0.13508 -0.022023 0.26759 0.18982 -0.3392 0.068345 -0.28886 0.55219 0.26144 0.36027 -0.44809 -0.099428 0.43597 -0.10022 -0.10117 0.17179 -0.0046759 -0.11451 -0.56161 0.39309 -0.014935 -0.057262 -0.25841 -0.030136 -0.16113 0.56316 -0.86659 0.41899 0.18225 -0.65055 -0.44383 -0.77653 0.18137 
eye -0.74216 0.36688 -0.040186 0.010374 0.26284 -0.47326 -0.29963 0.18143 0.082219 0.18374 0.062696 -0.10219 -0.40114 0.071184 -0.029061 0.074612 0.42362 -0.17158 0.00053612 -0.10972 0.15503 -0.11858 0.072145 0.20794 -0.033603 -0.21204 0.50768 0.21799 0.52194 0.43326 0.079928 0.32742 -0.052551 -0.005283 0.41413 0.072499 0.39045 -0.2651 -0.62897 -0.021482 -0.45485 0.50138 0.45783 0.56868 -0.0086302 -0.0516 0.33625 0.5208 -0.1289 -0.34123 -0.23637 0.32646 -0.22961 0.45266 0.46844 -0.40505 -0.04362 -0.39662 0.044122 0.29551 0.32009 -0.20378 0.34417 0.10908 -0.26034 -0.20075 -0.7326 0.42783 -0.039083 -0.082265 0.048777 0.063647 0.24806 0.13951 -0.17148 0.090576 -0.33107 0.053747 -0.11891 0.37714 -0.35667 0.16191 0.31467 0.2919 -0.40394 0.45313 -0.05119 0.00080076 -0.23678 0.015688 -0.061507 -0.36551 0.21253 -0.32852 -0.053129 0.0025891 -0.65125 -0.21618 -0.19937 -0.13981 
shirt 0.021918 0.28102 -0.062254 -0.3734 0.10822 -0.12107 -0.19826 -0.28262 -0.69256 0.084265 0.095702 -0.48479 -0.038214 -0.12689 -0.45713 0.54088 -0.15659 0.00034774 -0.60142 0.23231 -0.05177 -0.55864 0.2114 0.36229 -0.42196 0.27576 -0.14475 0.056313 0.15663 0.016134 0.39905 0.96131 -0.24598 -0.24637 0.41921 0.6315 0.36841 0.21403 -0.17998 0.40704 -0.58777 0.068313 0.5636 -0.068655 0.29105 0.47555 0.34482 0.37931 -0.66242 -0.07 -0.75784 0.4331 -0.38634 0.58544 -0.18114 0.3502 0.20728 -0.22398 -0.2718 0.40126 0.23234 -0.81987 0.024596 -0.12692 -0.82757 0.26024 0.56582 -0.22572 0.040274 -0.46067 -0.3573 0.19522 0.26372 0.0003898 0.28685 0.089767 0.32575 0.054961 -0.07496 -0.14229 -0.94543 0.8612 -0.10383 0.22436 -0.20848 0.29414 -0.06841 0.57845 -0.138 -0.1897 0.32669 -0.20119 0.66897 0.089887 0.019077 -0.70968 -0.49057 0.21857 0.23749 0.10157 
closet -0.14144 0.22095 -0.23628 -0.13326 0.46287 -0.56435 -0.86192 0.33058 -0.024178 0.16771 -0.26354 -0.13817 0.40189 -0.67134 0.26119 0.19551 -0.30555 0.033724 -0.042112 0.049637 0.069073 -0.33301 -0.15577 0.28943 -0.040211 0.34563 0.33808 0.041578 0.019241 -0.22466 -0.10102 0.068356 -0.64186 -0.42708 0.32785 0.16034 -0.063705 0.31838 0.42517 0.045299 -0.21704 -0.32224 0.13651 0.0097433 0.25643 0.097068 0.57846 0.10789 -0.22317 -0.18326 -0.49603 0.13061 0.11992 0.29584 0.023351 -0.0010196 -0.21531 -0.53814 -0.17837 0.62225 0.15863 -0.90493 0.53358 0.43737 0.17248 -0.15932 -0.00092668 0.013638 -0.2225 0.28267 -0.13571 0.22344 -0.29653 -0.26453 0.22064 0.47497 0.074522 -0.42443 -0.19236 0.52504 -0.22647 0.38437 0.21009 0.20088 -0.020781 -0.27051 -0.0074898 0.051928 0.27063 -0.19117 -0.14755 0.060556 0.89414 -0.74735 0.22021 -0.099906 -0.82111 -0.41119 -0.62641 -0.050232 
cup -0.072027 0.45997 -0.27364 0.21499 -0.054318 -0.015733 -0.15402 -0.25453 -0.27328 -0.34711 0.19923 -0.54009 0.56611 -0.5701 0.11833 -0.024184 0.39209 -0.35263 -0.4513 -0.034527 0.59294 0.1247 -0.0049514 0.23895 -0.26868 -0.48326 0.31311 -0.46505 0.41148 0.10758 -0.44392 0.39104 -0.3291 -0.026356 0.10437 0.20914 0.048913 0.092067 0.33178 0.18116 -0.44616 -0.04011 0.41431 0.31475 -0.0061151 0.12852 1.0734 -0.24091 -0.63618 0.36366 -0.034334 0.19754 0.13108 0.016389 -0.031064 -0.11982 0.4401 -0.42175 0.28866 0.20363 0.47838 -0.61132 0.47348 -0.030665 0.0082162 -0.010013 -0.010252 -0.20229 -0.45474 -0.65382 -0.32556 0.39047 0.42976 0.24867 -0.36409 -0.17122 -0.16726 0.19613 -0.25397 -0.39919 -0.27324 0.46634 -0.30744 -0.12284 -0.29739 0.6603 -0.27742 -0.1328 -0.1297 -0.22433 -0.47627 0.43759 0.0091474 -0.60951 0.037132 -0.062709 -0.15172 -0.15025 -0.27156 0.52567 
dress -0.19042 -0.042521 -0.018437 0.019236 0.5257 -0.2577 -0.59684 -0.38619 -0.33865 -0.10108 -0.11087 -0.45845 0.46324 -0.37041 0.24949 -0.076245 -0.23247 0.27288 -0.60508 0.060843 -0.071858 -0.53491 -0.12302 0.33242 -0.43646 0.23022 -0.24532 0.097066 0.24678 0.36799 0.24865 0.34691 -0.020678 -0.16044 0.68013 0.45704 0.09628 0.16944 0.031552 0.46669 -0.6946 0.15467 0.19202 -0.1064 0.52538 0.27086 -0.18966 0.20576 -0.61051 -0.34694 -0.76643 0.89241 0.13272 0.53668 -0.11859 0.11379 0.21952 -0.61692 0.081175 0.56094 0.044685 -0.61952 0.28825 -0.18989 -0.43491 0.10177 0.43681 -0.22112 -0.024728 -0.027374 -0.03135 0.15101 0.2168 0.071168 -0.079735 -0.20859 0.038009 -0.10335 -0.23542 -0.54039 -0.3379 0.63634 -0.44557 0.32402 -0.4029 0.22255 0.20478 0.37873 -0.072271 -0.34915 0.21275 -0.87215 0.7326 -0.3474 0.44946 -0.792 -0.61532 0.27503 0.22178 0.067246 
arm -0.24325 0.42572 -0.06003 -0.34179 0.27846 -0.2675 -0.089292 0.18777 -0.035678 0.038275 -0.80244 -0.0855 -0.43617 -0.10264 -0.2622 0.11293 0.23118 -0.34908 -0.098435 -0.37532 -0.031893 -0.12849 0.10167 0.89992 -0.16466 -0.21635 0.36294 -0.3722 0.35262 0.21963 0.013818 0.058533 -0.37568 -0.040053 0.61294 0.45011 0.37276 0.031538 0.059581 0.19258 0.13394 0.05436 0.26624 -0.31977 0.19335 0.081867 0.40537 -0.16274 0.072495 0.17953 -0.75231 0.38993 0.18186 0.55925 0.18299 -0.14374 0.090216 0.091734 0.094465 0.077781 0.28243 -0.56024 0.51372 0.13773 -0.37739 -0.17594 -0.42451 -0.031309 -0.47845 -0.1704 -0.22945 0.47268 0.26712 0.057486 0.055515 -0.21206 -0.062277 -0.048043 -0.081798 0.15762 -0.40942 0.96747 -0.1588 0.091663 -0.18461 0.24841 -0.61768 0.1126 -0.18001 -0.18369 0.019422 -0.023058 0.18791 -0.14483 0.27984 -0.44711 -0.30488 -0.27882 0.099448 0.22587 
celery 0.061607 0.75494 -0.057479 0.34399 0.067577 -0.10386 -0.56307 -0.072876 -0.35687 -0.40115 -0.078062 -0.31909 -0.25969 -0.45359 0.59546 0.2944 -0.30615 -0.54776 -0.77891 -0.60186 1.2523 0.010798 -0.14898 0.11053 -0.34745 -0.21348 0.12215 -0.46092 0.38044 0.14041 0.3225 0.55547 0.06493 0.40312 0.10214 0.51397 -0.70607 0.46896 0.16178 0.59223 -0.76008 0.20813 0.29249 0.69521 0.006138 0.10324 0.25486 0.50032 -0.3405 0.61677 -0.47697 0.38602 0.12457 0.35131 0.31076 -0.31756 0.52272 0.38785 0.90736 0.20776 0.41485 -0.99469 0.61889 -0.38647 -0.21224 0.030774 0.22924 0.26357 0.066136 -0.17173 -0.051394 -0.23841 -0.45821 0.33034 0.069426 0.36868 0.027267 0.050915 -0.18076 -0.066788 -0.20177 0.28611 -0.10906 0.36618 -0.087072 0.33482 0.33605 -0.04288 0.34216 -0.55964 -1.2113 0.21547 0.17039 0.1374 0.83885 -0.11186 -0.21202 0.30678 -0.40854 0.36509 
window -0.34748 0.26675 0.2383 0.098979 0.28887 -0.22976 -0.23919 -0.0072965 -0.13882 0.094002 -0.1569 0.066559 0.32176 -0.28876 -0.17948 0.085192 0.16757 0.19674 -0.26153 -0.54683 0.20721 -0.12569 0.45839 0.088345 -0.32879 0.29462 0.35316 -0.10377 -0.01158 0.35422 0.087914 0.31421 -0.66586 -0.34338 0.79882 -0.082823 0.027637 0.045807 0.020972 -0.11667 -0.34193 -0.055696 0.046302 0.084343 -0.37792 0.13676 0.79308 -0.089781 0.23554 -0.2642 -0.040008 0.26273 0.001103 0.29135 0.082935 0.087812 0.12088 -0.50426 0.15027 0.081605 0.28621 -0.17055 0.63077 0.22864 -0.071023 -0.13213 -0.35847 0.071694 0.10605 0.17009 -0.3551 0.1289 0.31191 0.019393 0.19332 -0.036101 -0.1878 0.079934 -0.22871 0.33448 -0.29821 0.13284 0.030669 -0.053572 -0.41777 -0.049518 0.2688 -0.23896 -0.55377 -0.29477 0.068319 0.21105 0.35919 -0.63123 0.13964 0.15114 -0.72805 -0.27846 -0.62614 0.043647 
chimney 0.006212 -0.10788 0.28812 0.50891 0.036594 -0.45074 -0.31177 0.24352 -0.47342 -0.12852 -0.061462 -0.23156 0.16214 -0.39213 -0.1165 0.07876 0.067402 -0.17809 -0.25216 -0.69166 0.47543 0.18291 0.27761 0.22356 -0.0062785 -0.46132 0.20049 -0.56738 0.17817 0.16726 0.36709 0.34941 -0.823 0.38533 0.55894 0.19714 -0.11065 -0.56932 -0.086798 0.68761 -0.47094 0.16341 -0.079475 0.30687 0.31971 -0.0021707 0.24982 -0.043993 0.21505 0.13625 -0.87128 -0.1471 -0.040702 0.040096 0.2821 0.065502 -0.14502 -0.54119 0.64299 0.13945 0.44187 -0.68713 0.9317 0.14745 -0.052326 -0.39164 -0.039064 -0.064696 -0.011298 -0.086197 0.20475 -0.19508 -0.24029 -0.12877 0.16138 0.50527 0.46824 0.33264 -0.056413 0.42557 -0.56173 0.86313 0.28626 -0.43777 -0.55141 -0.2787 0.053547 -0.033922 0.084469 -0.11878 0.075259 -0.1234 0.14577 -0.70049 0.59759 0.26784 -0.32662 0.041979 -0.85528 0.60223 
knife 0.20864 0.009379 0.27383 0.22415 -0.41236 -0.18096 -0.16728 0.66501 0.18141 0.35683 0.4057 -0.23075 -0.90054 -0.32923 -0.37663 0.12065 -0.18039 0.067434 -0.19767 -0.61276 0.23977 0.010955 -0.19191 0.75671 -0.76959 -0.0061101 -0.048948 -0.36099 -0.13736 -0.13287 -0.051668 0.76081 -0.21755 0.0081067 0.89353 0.9797 -0.20854 0.31524 -0.066806 0.56203 -0.57764 0.35337 0.61309 0.33662 0.70547 0.26192 0.32401 0.54589 -0.032443 0.53962 -0.76143 0.05777 -0.24328 0.27192 0.39287 -0.11199 0.69824 -0.10118 0.82158 0.16017 0.46549 -0.63581 0.3207 -0.065632 -0.27987 0.14839 0.38314 0.32418 -0.083495 -0.68294 0.038947 -0.15394 -0.050617 -0.034164 -0.84665 -0.29401 -0.43567 0.39534 -0.41082 -0.10769 -0.63988 0.7458 -0.16399 0.53266 -0.47928 -0.46778 0.099791 0.8665 0.56424 0.14294 -0.26415 0.114 -0.0012516 -0.59485 0.5073 -0.10001 -0.57656 0.24158 0.067921 -0.30349 
pants 0.14148 0.056504 -0.47075 -0.086384 0.1769 -0.41479 -0.29389 -0.13485 -0.26925 -0.18844 -0.34861 -0.50794 0.20992 -0.2853 -0.23656 0.26795 -0.038119 0.33056 -0.43973 -0.088443 -0.071718 -0.76418 0.09396 0.46084 -0.57259 0.2105 -0.22716 0.1913 0.00083822 -0.058493 0.075639 0.76117 -0.063629 -0.3445 0.5511 0.56899 0.38458 0.36765 0.33633 0.23183 -0.39334 0.21727 0.8698 0.0019759 0.47811 0.49701 0.49314 0.33243 -0.53518 -0.17321 -0.84557 0.4247 -0.10257 0.6857 0.16366 -0.018575 0.18591 0.012353 -0.11689 0.43668 -0.17235 -0.79104 -0.14612 0.047714 -0.33774 -0.042496 0.18649 -0.21861 0.0092167 -0.38434 -0.63863 0.083594 0.048714 -0.14077 0.21733 0.11105 0.27813 -0.16373 0.041041 -0.067497 -0.33165 0.70464 -0.26339 0.31806 -0.31042 0.13679 -0.085602 0.24275 0.12327 -0.29298 0.07731 -0.19765 0.7877 -0.38298 0.41483 -0.99501 -0.13251 0.2626 -0.1099 -0.043523 
butterfly -0.23303 0.14782 0.27203 0.41449 -0.15103 -0.084433 -0.29196 0.020974 -0.14333 0.043762 -0.27035 -0.15176 -0.00077598 0.29465 0.11879 0.26749 -0.375 -0.14697 0.038887 -0.36741 0.42388 -0.63597 0.058455 -0.026869 -0.69969 -0.36739 0.26264 0.035143 0.212 0.36596 0.21897 0.27751 0.013985 0.29914 0.74264 0.069907 -0.031165 0.054651 -0.086154 0.34523 -0.55956 0.18489 -0.084991 0.2339 0.10601 0.055538 0.40213 0.35652 -0.073808 -0.056836 -0.35336 1.0031 0.40956 -0.031704 0.22701 0.25217 -0.028533 -0.50093 0.1293 0.57957 0.35029 -0.24613 0.88746 0.22173 -0.31647 -0.011821 -0.62315 0.71977 -0.02831 0.46574 0.3629 0.072013 0.073038 0.50402 0.07213 0.2533 -0.12113 0.21418 -0.30593 -0.43037 -0.34078 0.45636 0.046541 -0.0058714 -0.43888 0.070215 0.26992 0.18901 -0.60005 0.30502 0.017833 -0.085355 0.043181 -0.16185 0.29243 -0.075795 -0.35127 0.21787 -0.082713 -0.003899 
fly -0.38598 -0.18045 0.15492 -0.13409 -0.23353 0.018274 0.16599 0.29953 -0.32237 -0.24368 -0.54594 -0.42514 -0.05077 0.18396 -0.50872 -0.022885 0.33874 -0.21086 -0.23318 0.11362 0.48181 -0.34129 0.1792 0.33674 -0.78324 0.015657 0.2132 0.019231 -0.028963 -0.043844 0.076918 0.61798 -0.62891 0.045221 0.67944 0.49995 -0.033566 0.26754 0.10829 0.5782 -0.30733 0.38199 -0.17851 -0.015484 -0.019624 0.24254 0.42693 -0.04647 0.1848 -0.14478 -0.10489 -0.042374 -0.027189 -0.027526 0.30022 -0.52028 -0.077338 -0.24698 0.10688 0.064698 -0.18538 -0.18461 0.36814 -0.036225 0.060888 0.056261 -0.49353 0.53913 -0.43613 0.45991 0.11921 -0.17178 -0.47456 -0.0028349 0.14154 0.37134 0.17295 0.31211 -0.079844 0.035314 -0.32536 0.44821 -0.079963 -0.11963 -0.37729 0.036772 -0.085698 0.20451 -0.47778 -0.053867 0.21398 -0.014134 0.50422 -0.47273 0.22834 -0.22666 0.0021686 0.40585 -0.22432 0.024704 
door -0.18095 0.20519 0.24766 0.20883 -0.012277 -0.22884 -0.38728 0.17557 -0.0076449 -0.21888 -0.21887 -0.0512 0.19414 -0.35097 0.2112 0.33269 0.051977 0.46973 0.10018 -0.75372 0.15122 -0.091217 -0.15256 0.71769 -0.47045 0.20568 0.40431 -0.59087 0.23238 0.27043 -0.076395 0.39015 -0.36798 -0.50862 0.85456 0.36311 0.037828 0.10426 0.18473 0.2539 -0.28695 -0.20407 -0.25045 -0.021481 -0.034437 0.23469 0.8482 -0.039617 -0.023405 -0.39203 -0.41689 0.025038 -0.11651 -0.046115 0.27474 0.17693 0.088733 -0.50142 0.21474 0.14971 0.25594 -0.36537 0.64906 0.50149 -0.037111 -0.15257 -0.35927 0.1964 0.12111 0.208 -0.32809 0.040775 0.097165 -0.20971 0.35683 0.10474 -0.22721 -0.089679 -0.20325 0.67814 -0.44066 0.31182 -0.018015 0.08968 -0.29417 -0.37572 -0.036771 -0.29121 -0.17223 -0.21911 -0.07919 0.068851 0.30345 -0.78445 0.22963 -0.037614 -0.54324 -0.29996 -0.64135 0.17102 
chair -0.04614 0.35884 -0.081492 -0.14942 -0.037105 0.19893 -0.22214 0.065482 0.11442 -0.066524 -0.64723 -0.25548 -0.072131 -0.27372 0.28156 -0.16732 0.24806 0.46206 -0.072074 -0.10384 -0.37655 -0.29859 -0.54334 1.1027 -0.18111 0.091914 0.3338 -0.3027 0.24592 0.40014 0.037757 -0.1288 -0.99435 -0.086028 0.39649 0.15405 0.079437 0.16992 0.023874 0.47976 -0.20178 -0.42439 0.43421 -0.16965 0.071503 0.32074 0.61645 0.12297 0.08297 0.20266 -0.54075 0.12052 0.45062 0.36675 -0.023352 0.23355 0.38107 -0.50657 0.16721 0.46462 0.36825 -0.79775 0.42224 -0.10535 0.063158 -0.33574 -0.09705 -0.25089 -0.28051 -0.16896 -0.32331 0.041474 0.34939 0.12479 0.11762 0.18775 -0.15635 -0.054631 -0.60171 -0.027483 -0.30864 0.73976 -0.12555 -0.35328 -0.14195 0.03289 -0.5261 0.42086 0.1825 0.14164 0.079242 -0.27455 0.40314 -0.78585 0.49067 -0.26956 -0.32703 -0.14707 -0.26004 0.16285 
leg -0.13018 0.44319 -0.21822 -0.28742 0.25742 -0.24358 -0.093382 0.14234 0.16101 0.0092767 -0.85982 0.03327 -0.28173 -0.10067 -0.023436 0.052256 -0.0035913 -0.24119 -0.11274 -0.34699 0.16033 -0.42595 -0.19113 0.87421 -0.27757 -0.13969 0.33164 -0.249 0.20217 0.44499 0.14208 0.32332 -0.24918 -0.19668 0.51628 0.47577 0.16918 0.15994 0.27377 0.45161 0.049916 0.12122 0.5515 -0.29203 -0.018941 0.1622 0.34348 0.066086 0.20616 -0.24518 -0.88437 0.54176 0.55965 0.55957 0.46633 -0.15972 0.12388 0.066435 0.22863 0.12454 0.12282 -0.6444 0.15566 -0.1053 -0.22709 -0.094799 -0.29397 -0.074202 -0.1815 -0.38192 -0.2226 0.11639 0.065024 0.016982 0.3129 -0.16345 -0.13271 -0.19965 -0.10286 0.083529 -0.11218 1.0785 -0.28934 -0.081034 -0.31627 0.52042 -0.44707 0.27891 -0.137 -0.19941 -0.081383 -0.14674 0.40834 -0.093716 0.5236 -0.27085 -0.11934 -0.25773 -0.041973 0.28946 
corn 0.12184 0.38268 0.03443 0.38185 -0.0050987 0.12548 -0.57211 -0.050181 -0.50227 -0.56243 0.012855 -0.62194 -0.45085 0.05634 0.30837 0.0070503 -0.034527 -0.45996 -0.51818 -0.12505 1.0496 -0.086875 0.19836 0.38709 -0.1659 -0.84013 0.37766 -0.21809 0.35471 0.28001 0.13134 0.71848 -0.4389 0.16767 0.060336 0.23614 -0.47488 0.49129 0.11536 0.86096 -0.76906 0.50269 -0.016757 0.80128 0.14067 0.15233 0.54755 0.25547 -0.35671 0.44199 -0.17474 0.32116 -0.0016235 -0.1955 -0.45132 0.1553 0.11412 0.55472 0.88956 0.49568 0.57757 -0.53119 0.19626 -0.34309 0.3848 -0.15631 -0.060358 -0.12709 0.5778 0.11216 0.18619 -0.15545 -0.69396 0.10446 0.048601 0.17604 0.066107 0.17405 -0.11487 -0.26138 -0.27144 0.066219 0.08361 -0.048423 -0.27115 -0.011678 0.040451 -0.21115 -0.076384 -0.041974 -0.71839 -0.11419 0.48147 -0.18235 0.67245 0.052572 -0.161 0.31147 -0.54517 0.24452 
watch -0.62338 0.25946 0.23429 -0.17743 0.55082 0.25078 0.29586 -0.24034 -0.042686 -0.031655 0.25081 -0.31475 -0.22848 -0.34147 -0.3487 -0.39203 -0.33565 0.53934 -0.54398 0.47371 0.048696 0.38984 0.47455 0.3813 -0.29937 0.17986 0.16344 -0.086817 0.2565 0.21262 -0.26691 0.12533 -0.37173 -0.026818 0.55432 0.14544 0.46678 0.27188 -0.11324 0.66539 -0.050252 0.063767 -0.082851 -0.37328 0.53562 -0.072706 0.44254 0.48131 -0.29652 0.09209 -0.026774 -0.091944 -0.10537 0.16901 -0.13696 -0.17134 0.15485 -0.063463 0.22145 0.22812 0.1064 -0.31036 0.23297 0.34949 -0.36601 -0.59288 0.090476 0.086776 -0.14643 0.11854 0.032841 -0.08645 0.26362 -0.17538 -0.38073 0.37999 -0.37616 0.36239 -0.17957 -0.34318 -0.4325 0.47477 0.24799 0.010927 -0.071432 0.2851 0.22221 0.1178 0.045047 -0.0018764 -0.072948 -0.5649 0.31582 -0.079214 0.21666 -0.3059 -0.81083 0.41862 -0.13146 -0.26449 
screwdriver -0.087168 -0.12892 -0.029669 0.16572 0.35781 -0.20263 -0.54854 0.5836 0.31351 -0.020336 -0.40521 -0.11133 -0.46582 0.17096 0.25835 0.42752 0.030102 -0.25182 0.24568 -0.97459 -0.1171 0.73388 0.10972 0.21746 -0.31967 -0.32581 0.25578 -0.17632 0.284 -0.18497 0.19029 0.18835 0.16225 -0.064517 0.96905 1.1327 -0.601 0.16075 0.27137 0.093789 0.066722 0.16259 -0.34308 -0.21467 0.64434 0.041262 0.81569 0.15814 -0.027398 0.55709 -0.2243 0.1306 0.038811 -0.087952 0.73678 -0.59005 0.55639 -0.41294 0.65454 -0.21425 0.083995 -0.75216 0.74369 0.58729 -0.021015 -0.087788 -0.074948 -0.020935 -0.12088 -0.64545 -0.17064 0.044944 0.37369 -0.32579 -0.49018 0.0055044 -0.28684 0.34767 -0.54763 -0.18584 -0.8987 1.3533 0.024983 0.58945 -0.10113 0.23167 -0.38782 0.16333 0.2363 -0.67433 -0.34627 0.25955 -0.040919 -0.44734 0.26711 -0.11167 -0.69017 -0.42787 -0.59676 0.091352 
bear -0.094727 0.34416 0.19119 0.35956 0.036519 0.016605 -0.11487 0.23811 -0.15145 -0.045417 -0.065072 -0.22325 -0.20818 0.13774 0.091426 0.23469 -0.16392 -0.016451 0.02942 -0.1503 0.092418 -0.62222 0.059066 0.30802 -0.64453 0.082066 0.13766 0.076188 0.37722 0.1151 0.11345 0.56039 -0.20012 0.085626 0.34237 -0.18633 0.11265 0.046997 0.195 0.29862 -0.54254 0.16489 -0.045284 -0.022639 -0.046881 0.20486 0.5015 0.099041 0.29674 -0.021242 -0.16213 0.39007 -0.28517 -0.068518 -0.069057 -0.13693 0.16975 0.17389 0.029226 0.21907 0.52213 -0.15906 0.088347 0.13345 0.0091997 -0.31653 -0.3144 0.26188 -0.1869 -0.030145 0.27872 0.18699 -0.20062 0.082024 0.051847 0.10683 -0.12418 -0.075505 0.050325 0.080881 -0.24991 0.31444 -0.050686 -0.078894 -0.36018 0.083127 0.14536 0.067732 -0.32529 0.45681 -0.27477 -0.35539 0.85214 0.16921 0.49171 0.017676 -0.55609 0.47603 0.13089 0.14614 
hand -0.26233 0.15134 -0.070851 0.085047 0.26406 -0.13624 -0.090836 0.40438 0.29656 -0.24027 -0.43123 -0.32031 0.0023754 0.084681 -0.28856 -0.22561 0.29793 -0.023298 -0.2119 -0.026379 0.35278 -0.14996 0.026667 0.40487 -0.24053 -0.279 0.49104 -0.26936 0.21222 0.0061845 -0.23089 0.19104 -0.089839 -0.031142 0.39136 0.33912 -0.031287 -0.3956 0.088898 0.051347 -0.35218 -0.054466 0.32003 0.046634 0.074182 0.090127 0.31856 -0.1389 -0.12498 0.012557 -0.50592 0.14712 0.14576 0.38598 0.30938 -0.012293 0.24201 0.12903 0.13076 -0.059494 0.41562 -0.42111 0.24116 -0.18258 -0.003713 -0.097052 -0.50308 0.3595 -0.639 -0.11095 0.037517 0.36543 0.1065 -0.38301 -0.13019 -0.0048876 -0.14593 -0.10589 -0.055473 0.26426 -0.48336 0.39859 -0.15282 0.19191 -0.30626 0.099594 -0.20157 0.36983 -0.024781 -0.039989 -0.28647 0.20116 0.15974 -0.13504 -0.028702 -0.10957 -0.50507 -0.097681 -0.069947 0.099072 
glass 0.067364 -0.19019 0.53546 0.3824 0.31949 -0.12948 0.097936 -0.1086 -0.24967 -0.17437 0.074836 -0.16131 0.10455 -0.17048 -0.1436 0.12901 0.1296 -0.051088 -0.11329 -0.39061 0.89762 0.14075 -0.31756 -0.22493 -0.026444 -0.47588 0.39548 -0.30556 0.91054 0.29276 -0.26414 0.16651 -0.45453 -0.096709 0.38611 -0.058162 0.16308 -0.13735 -0.26345 0.38947 -0.37016 -0.15905 0.27231 0.51064 -0.060348 -0.20325 0.94402 -0.060727 -0.25635 0.3367 -0.043315 0.20825 -0.16082 0.5279 0.35156 -0.23698 0.084297 -0.24656 0.58601 -0.15515 0.22456 -0.622 0.8242 0.11478 0.15134 -0.12721 -0.53055 0.036861 -0.054814 -0.032766 -0.45569 0.31435 0.61135 0.19749 -0.36136 0.23277 -0.25064 0.091891 -0.58154 -0.20355 -0.55682 0.5096 -0.058888 0.043954 -0.15499 -0.061565 0.27194 -0.13994 0.0013834 -0.11305 0.13617 0.037968 -0.095919 -0.58259 -0.14269 0.3217 -0.55584 -0.10204 -0.66544 0.29718 
spoon -0.19956 0.73965 0.10682 -0.32995 0.026264 0.18176 -0.2281 0.16498 0.072701 -0.58873 0.17197 -0.37914 -0.040198 -0.0642 0.30129 0.29148 0.10747 -0.48508 -0.19267 -0.1695 0.70352 0.050283 -0.050279 0.55944 -0.4499 -0.8166 0.68146 -0.44185 0.57863 -0.071463 -0.28571 0.22054 -0.17189 0.34598 0.018949 0.27564 -0.27884 0.17868 0.15554 0.54548 -1.0264 -0.39124 0.42087 0.45506 0.33912 0.039207 0.49895 0.52745 -0.58746 0.49486 -0.27412 0.051439 0.091918 0.020861 0.21921 -0.021433 0.6782 -0.11052 0.54626 0.14249 0.56148 -0.7254 0.51862 0.080354 0.14387 -0.089892 -0.14923 0.022487 -0.26265 -0.41973 0.024984 0.70812 -0.13326 -0.027796 -0.68013 0.067742 -0.06567 0.2154 -0.44463 -0.61573 -0.23091 0.37976 -0.51039 0.065107 -0.44712 0.22955 -0.048107 0.14514 0.30538 -0.0092696 -0.49468 0.198 0.017007 -0.59757 0.35453 -0.11292 -0.54936 -0.11873 -0.53425 0.26245 
train -0.58596 0.019666 0.14111 0.33445 -0.090406 0.16187 0.016526 0.1751 0.069267 -0.29045 -0.49302 -0.54073 0.29249 0.2436 -0.39433 -0.18316 -0.2686 0.20049 -0.14656 0.31065 0.049678 -0.32125 -0.20558 0.63115 -0.51814 0.14096 0.54281 0.057422 0.082818 -0.053255 0.24414 0.34707 -0.70855 0.083233 0.92554 0.59316 0.1897 0.048247 0.31149 0.57606 -0.20762 0.022008 -0.25148 -0.32473 -0.041186 0.4992 0.25147 -0.077165 0.43745 -0.0071488 -0.17791 -0.041774 -0.25731 -0.32875 -0.25877 0.17783 0.098051 -0.28352 0.21926 0.091884 0.37432 -0.24437 0.22967 0.28334 0.036171 -0.13475 -0.47924 0.35611 -0.37266 -0.20588 0.048385 -0.45379 -0.061012 -0.075928 0.23124 0.14018 -0.033061 -0.087549 -0.22227 0.086278 -0.09462 -0.11464 -0.22788 -0.19835 -0.082462 0.45176 -0.26475 0.090906 -0.22562 0.014036 -0.14014 -0.18633 0.22154 -0.55432 0.78307 -0.19238 -0.011267 -0.027157 0.11778 -0.12166 
key -0.28765 0.31665 -0.52503 0.5919 0.40789 0.28695 0.12014 0.37637 0.086299 0.39653 -0.54786 0.18335 0.074897 0.38818 0.42224 -0.17968 -0.043596 -0.075181 0.091202 -0.26167 -0.030741 -0.11119 0.17923 0.27774 -0.26806 -0.33152 0.073287 -0.43556 0.25862 -0.13525 0.11781 0.26289 -0.13712 -0.29453 0.61993 0.72713 -0.14206 0.047018 0.014786 0.029987 -0.015519 -0.21073 -0.055224 0.19389 -0.035688 0.10252 0.22453 -0.17742 -0.085468 -0.12885 0.096206 0.14544 -0.2431 -0.082749 -0.19544 0.35153 0.064012 0.075856 0.21014 0.12908 0.15412 -0.38269 0.33126 0.15489 -0.77897 0.00079746 -0.19342 0.6122 -0.34816 -0.043241 -0.36735 -0.088237 -0.090151 -0.020085 0.032316 0.0026291 -0.46732 -0.056666 -0.0093417 0.077211 -0.40789 -0.075376 -0.15015 0.44754 0.10385 0.22935 0.15814 0.096726 -0.33936 0.29908 -0.083545 -0.018336 0.043665 0.23058 -0.046296 0.064905 -0.39094 -0.29988 -0.40869 -0.14198 
desk -0.033711 0.45417 -0.22377 0.083078 0.63184 0.14028 -0.3408 -0.12015 0.14849 0.11286 -0.34938 0.083907 0.13576 -0.039694 0.35915 0.14345 0.40596 0.061122 -0.33357 -0.46588 -0.066296 -0.17801 -0.43155 0.3924 -0.26124 0.30513 0.57262 -0.071395 0.22826 -0.24166 -0.35523 -0.20954 -0.94561 -0.25034 0.4106 0.44473 -0.15893 0.36464 -0.22171 0.071019 0.042402 -0.5879 0.081922 -0.041607 0.12775 0.3454 0.46577 -0.23347 -0.1589 0.47188 -0.2515 0.26208 0.16582 0.44569 0.13171 -0.24766 -0.17614 -0.23598 -0.12261 0.24866 0.2191 -0.81371 0.69283 0.026104 -0.19657 -0.015582 -0.43399 -0.24096 -0.44185 -0.014344 -0.60375 -0.050699 0.49505 -0.00263 -0.12894 0.38239 0.31668 0.24662 -0.76556 0.37167 -0.48868 0.11608 0.22995 -0.16145 -0.17487 0.090109 -0.34979 0.42365 0.42497 -0.11605 0.19148 0.044324 0.1864 -0.72514 0.20005 0.20721 -0.57532 -0.42521 -0.53422 -0.095703 
foot 0.27034 0.24755 0.019571 0.034484 0.46961 -0.21532 -0.24217 -0.039744 0.16802 0.074489 -1.0276 -0.31598 0.052354 -0.12172 -0.35579 0.21235 0.26976 -0.16457 -0.25797 -0.3125 0.35552 -0.46581 -0.27534 0.74753 -0.1202 -0.29335 0.65891 -0.17498 -0.11318 0.3825 -0.29914 0.37852 -0.4566 -0.089002 0.6642 0.039968 0.25897 0.0095808 0.010193 0.078307 -0.19226 0.045837 -0.0089867 -0.22082 0.125 0.44152 0.13071 0.089425 -0.0087173 -0.06272 -0.19884 0.57122 0.45552 0.23639 0.24704 -0.1647 0.09118 -0.31568 0.36794 0.23754 -0.0062881 -0.51702 0.13892 -0.056748 0.28073 0.24366 -0.31703 -0.32401 -0.10073 -0.52771 -0.40387 0.07401 -0.27678 -0.25089 0.048486 0.0070789 -0.16278 -0.21762 -0.065338 -0.096329 0.13708 1.2229 -0.133 -0.32788 -0.0505 0.2258 -0.36137 0.35259 -0.032518 -0.35129 -0.031691 -0.3191 0.4769 -0.19627 0.28243 -0.097921 -0.36259 -0.26367 -0.63149 0.16255 
pliers -0.10145 -0.58608 -0.020506 0.37489 -0.098208 -0.72715 -0.46289 0.38076 0.21017 0.049687 -0.082852 -0.17483 -0.49282 0.029501 -0.12262 0.48443 0.083491 -0.28912 -0.1122 -1.1969 0.2424 0.22265 0.010575 0.72193 -0.37934 -0.56849 0.038313 -0.070321 0.36685 -0.30719 0.068639 0.50248 0.06431 -0.32885 0.90156 1.0337 -0.48082 0.22737 0.17411 0.49721 -0.22839 0.38873 -0.037064 -0.21526 0.8158 0.15078 0.38476 0.49483 -0.07369 0.54168 -0.27634 0.35364 0.69211 -0.010492 0.72706 -0.28136 0.61926 0.11599 0.57135 -0.10151 -0.048171 -0.37921 0.51058 0.45359 -0.095652 -0.21773 -0.54798 0.30429 -0.021534 -0.7353 -0.21741 0.11506 0.22285 -0.3348 -0.49466 -0.22568 -0.46124 0.72606 -0.41828 -0.2013 -0.85807 1.2926 -0.11228 0.55002 -0.06489 0.4144 -0.27094 0.19737 0.47241 -0.59917 -0.26877 0.10293 0.25772 -0.43975 0.098831 -0.37965 -0.42232 -0.38236 -0.79164 0.11643 
arch -0.24038 -0.21663 -0.57886 -0.078348 0.66985 -0.30314 -0.4318 -0.059304 0.06444 0.69853 -0.73708 -0.40339 0.046873 -0.54931 0.46225 0.53691 0.50903 0.48839 -0.31191 -0.43331 -0.042458 -0.32512 -0.56999 1.0928 0.53305 -0.52828 0.14349 -0.2951 0.16635 0.45857 -0.084229 0.26177 -0.0045103 -0.051649 0.48003 0.21809 0.34715 0.58263 -0.0035628 0.54963 -0.55092 0.24479 0.31824 -0.44862 0.054447 0.72343 0.073139 -0.2508 0.10143 -0.069456 -0.20498 0.56296 -0.16615 0.49217 0.37303 -0.48446 0.32917 -0.35404 0.063629 0.54664 0.090492 -0.58494 0.070412 -0.14863 -0.27383 0.25483 -0.51742 -0.28837 -0.090332 -0.36281 -0.68864 0.18037 -0.39197 0.30301 -0.0045145 -0.12321 0.12815 -0.034838 0.2349 -0.34349 0.44391 1.3167 -0.29135 -0.23341 -0.37789 0.66934 -0.19593 0.72718 0.38371 0.20988 -0.24617 -0.41185 0.42754 0.060644 0.32036 -0.40536 -0.66285 0.2808 -0.81536 -0.063764 
refrigerator 0.15033 0.32245 -0.032826 0.33707 0.39678 0.11222 -0.4137 -0.26342 0.024623 -0.031256 0.18886 -0.052668 0.21896 -0.47376 0.15254 0.40482 0.22526 0.062356 -0.29342 -0.43286 0.27453 0.06095 -0.053736 0.10191 -0.020868 -0.40441 0.27826 -0.47558 0.32259 -0.17108 -0.4229 0.52683 -0.59317 -0.08189 0.58314 0.19842 -0.5352 0.00046241 0.23252 0.86813 -0.27633 -0.25497 -0.18373 0.38597 -0.22515 -0.098262 1.1911 0.075947 -0.36785 0.47519 -0.33601 0.10367 -0.21872 0.43382 0.033251 0.067357 -0.21396 -0.30157 0.28961 0.19972 0.24426 -0.85991 0.31607 0.12281 0.017995 -0.2741 -0.095918 -0.0036028 0.017462 -0.25526 -0.27619 0.1749 -0.19559 0.00048254 -0.13312 0.47326 0.051415 0.15022 -0.59902 0.52432 -0.71117 -0.076361 0.050439 -0.14749 -0.21096 -0.24331 0.17814 -0.358 0.086491 -0.41469 -0.32145 0.29163 0.30655 -0.74382 0.38816 0.054985 0.00079908 -0.18416 -1.0351 0.58816 
tomato 0.40814 0.46607 0.39809 0.26942 0.22057 0.010986 -0.58917 0.099478 -0.20981 -0.16412 0.2903 -0.22766 -0.11305 -0.60387 0.37983 -0.0055875 -0.24698 -0.62454 -0.84135 -0.47912 1.1969 0.0052178 -0.15251 0.2739 -0.34859 -0.35043 -0.078025 -0.38922 0.2972 0.27203 0.28076 0.62141 -0.076809 0.57838 0.22294 0.28212 -0.78467 0.10097 0.34507 0.57077 -0.58985 0.28084 0.51112 1.0362 0.16646 -0.047893 0.41083 0.40479 -0.045194 0.33987 -0.35254 0.58936 -0.034821 0.40218 0.058694 -0.42259 0.65702 0.31051 0.7543 0.40964 0.25902 -0.90562 0.23579 -0.2802 0.019754 -0.11682 0.17321 0.31904 0.24176 0.069734 -0.020471 -0.14833 -0.63374 0.20359 -0.17152 0.046289 0.0016222 0.30859 0.1904 0.1259 0.038264 0.13416 0.21085 -0.26978 -0.053986 -0.086692 0.41114 0.082455 -0.03823 -0.2317 -0.73146 0.12002 0.2336 -0.2307 0.41949 0.049919 -0.57972 0.23366 -0.65193 0.31447 
cow -0.087935 0.16482 0.049308 0.27952 0.16581 0.045468 -0.53302 0.27064 -0.24092 0.12414 -0.0041219 -0.29386 0.15846 0.16405 -0.29197 0.2215 -0.25917 -0.085584 -0.33159 -0.15027 0.63748 -0.62105 -0.0090278 0.46551 -0.76681 0.039702 0.21861 0.040226 0.6628 0.44494 0.1767 0.33597 -0.28168 0.02584 0.061421 -0.10373 -0.055766 0.19785 0.22651 0.4741 -0.62594 0.22798 -0.11231 0.2005 -0.40299 0.13888 0.14424 0.14613 0.12054 0.22836 -0.61876 0.47843 -0.029243 -0.23521 -0.095207 0.51424 0.15839 0.47271 0.54806 0.44011 0.89964 -0.41139 0.15612 -0.056474 -0.013992 -0.020932 -0.36481 -0.1634 -0.035769 -0.051348 0.19459 -0.069599 -0.62648 -0.10068 0.31724 -0.037306 0.41082 0.041882 -0.048675 -0.14892 0.0017282 0.081907 0.045226 -0.1498 -0.36346 0.21121 -0.012928 -0.28474 -0.71107 0.38186 -0.62335 -0.29988 0.29662 -0.0049593 0.59664 -0.073758 -0.31782 0.29703 0.21059 0.17935 
coat 0.26946 0.19539 -0.12581 0.12851 0.22371 -0.16142 -0.075321 -0.28563 -0.30501 0.15316 0.047317 -0.35273 -0.51696 0.058499 -0.10308 0.099782 -0.044264 -0.32263 -0.31728 -0.69551 0.63262 -0.43321 -0.0058215 -0.024788 -0.034162 -0.33091 0.091382 0.42214 0.53995 -0.080102 0.55671 0.94493 -0.66629 -0.25152 0.64895 0.2635 -0.16025 -0.07713 0.30712 0.39127 -0.60939 -0.12887 0.4689 0.13293 0.16321 0.5112 0.2604 0.17836 -0.77747 -0.40675 -0.13536 0.22599 -0.082642 0.85755 0.28593 -0.297 0.31821 -0.41161 0.33832 0.2624 0.29258 -0.70492 0.12623 -0.13119 0.080568 -0.18978 0.24374 0.0023314 0.019122 -0.27263 -0.1894 0.36422 0.035788 0.091611 0.20681 0.31519 0.067448 0.1465 -0.16884 0.33661 -0.59479 0.25335 -0.32683 0.21737 -0.31689 0.17987 -0.0089987 0.0055649 0.038405 -0.18546 -0.04757 -0.16524 0.49631 -0.50898 0.010889 -0.27606 -0.72743 -0.035099 0.33534 -0.11016 
chisel -0.26753 -0.34649 0.41295 0.2254 0.18518 -0.14906 -0.15343 0.41423 -0.025061 0.16155 -0.43344 0.18949 -0.49561 0.051686 0.13215 0.025793 0.11611 -0.49948 -0.23847 -1.018 0.39807 -0.062143 -0.22222 0.206 -0.35122 -0.47848 0.036541 -0.22845 0.1414 -0.088366 0.29307 0.45645 -0.66288 0.02348 0.62739 0.72019 -0.24204 0.1049 -0.25782 0.093051 -0.50426 0.038307 -0.0085017 0.048058 0.25822 0.23185 0.34835 0.09023 0.17073 0.50382 -0.18037 -0.076669 0.21946 0.021688 0.70275 -0.016086 0.54396 -0.23363 0.58907 -0.13438 0.47063 -0.56879 0.39607 -0.024133 0.20464 -0.086093 -0.38142 0.31609 -0.26381 -0.87183 -0.33192 -0.27405 -0.22302 -0.061969 -0.49858 -0.15781 -0.089983 -0.15102 -0.45772 0.020483 -0.43143 0.99652 0.20454 0.32882 -0.34069 0.11734 0.066445 0.53923 0.65356 -0.37466 -0.11068 0.44836 -0.52571 -0.96218 0.2641 -0.14088 -0.64435 -0.44294 -0.69679 -0.23689 
dog 0.20595 0.35547 -0.23871 0.17679 -0.20825 0.26267 0.19462 0.02412 -0.060305 -0.27428 -0.37644 -0.49698 -0.14258 0.35202 -0.076299 0.2349 -0.26208 0.3424 0.0036044 -0.33275 0.71154 -0.86202 0.013301 0.55337 -0.43529 0.06997 0.53853 0.1182 0.22086 -0.068197 0.0065881 0.51477 -0.46602 -0.10014 0.39901 0.20649 -0.0037959 -0.1087 0.53916 0.47124 -0.53893 0.13631 0.15247 0.1046 -0.069777 0.55475 0.28735 -0.0088774 -0.31499 -0.21599 -0.59785 -0.27149 -0.094163 -0.3004 -0.15364 -0.068878 0.3877 -0.27168 0.15659 0.36337 0.72604 -0.50663 0.081828 0.32609 -0.30281 -0.18444 -0.42323 0.025467 0.35694 -0.25118 0.30273 -0.040674 -0.17612 -0.11234 0.14161 0.099316 0.24796 0.17844 -0.16175 0.39694 -0.33936 0.38207 0.32829 -0.5056 -0.28847 0.48766 -0.12071 -0.19779 0.090488 0.0062998 -0.4731 -0.30802 0.67348 -0.39324 0.52544 -0.090286 -0.1749 0.067382 0.035301 -0.38582 
bed 0.026938 0.28747 -0.27789 0.059497 0.072137 0.17735 -0.4474 -0.2707 0.070802 -0.33676 -0.6805 -0.19897 0.45139 -0.15692 0.12937 -0.043077 -0.32299 0.40773 -0.32715 -0.12083 0.27463 -0.50579 -0.017735 0.66297 -0.16356 -0.11018 0.41452 0.052911 0.30956 0.30919 -0.40856 -0.084096 -1.0282 -0.022871 0.0085485 0.21314 0.041707 0.279 0.15874 0.31252 -0.46434 -0.22446 0.086481 0.03807 0.0086182 0.37773 0.52661 -0.19304 0.10797 -0.23778 -0.21582 0.35925 0.15546 0.3789 0.51622 0.21546 0.49372 -0.40401 0.03011 0.27679 0.37179 -0.43657 0.43135 0.063305 0.17611 -0.48899 0.066031 -0.5606 0.015027 -0.11157 0.0050622 -0.13699 0.24275 0.27179 0.24423 0.66901 0.046927 -0.19984 -0.39559 0.32711 -0.24976 0.55612 0.016619 -0.23512 -0.45227 -0.080908 -0.33478 0.12309 0.0034274 0.24957 0.078688 -0.28799 0.99954 -0.47433 0.47874 0.19703 -0.54264 0.11127 -0.43317 0.61166 
cat 0.14483 0.41632 -0.22894 0.1141 0.0704 0.11521 -0.023563 0.030309 -0.0053845 -0.32585 -0.32958 -0.48127 -0.033427 0.2352 -0.042163 0.4407 -0.5203 0.10071 -0.10186 -0.42419 0.64709 -0.67008 -0.17518 0.40186 -0.32003 -0.078308 0.57872 -0.10115 0.22364 0.095131 -0.44224 0.081849 -0.31636 -0.13055 0.12941 0.017344 -0.18226 0.014738 0.5888 0.4253 -0.56176 -0.0907 0.12249 0.22125 -0.13594 0.37938 0.28738 0.061261 -0.24421 -0.21321 -0.54791 -0.25987 -0.18966 -0.20008 -0.16695 -0.22115 0.25177 -0.53331 -0.03601 0.49083 0.92946 -0.49496 0.35188 0.39549 -0.28265 0.076301 -0.45058 -0.026727 0.33912 -0.13327 0.4667 -0.026809 -0.36157 0.10487 0.11118 0.25653 0.30205 0.0064971 -0.40344 0.31671 -0.32176 0.29272 0.39896 -0.44823 -0.28859 0.55045 -0.00065253 -0.26178 0.05213 0.043304 -0.20523 -0.2623 0.53832 -0.4623 0.36361 0.0016915 -0.45192 0.14504 -0.25992 -0.23343 
hammer -0.37353 0.17799 0.31291 0.093941 0.19532 -0.38702 -0.34398 0.57081 0.20465 -0.047531 -0.51617 -0.11386 -0.51839 0.19369 0.030317 0.040552 0.12021 -0.079545 0.10173 -0.92179 0.42276 -0.17246 -0.24725 0.2501 -0.22606 -0.47768 -0.071361 -0.43698 0.26822 0.21225 0.076292 0.29446 -0.28614 0.10408 0.52555 0.4968 -0.048207 0.18133 0.16586 0.17745 -0.10937 0.10746 -0.3744 -0.39974 0.23311 0.24868 0.23838 0.046361 0.20137 0.23807 -0.33965 0.14464 0.13849 0.090834 0.53473 0.10614 0.37202 -0.086976 0.58831 -0.039823 0.1636 -0.61207 0.55249 0.14219 -0.11928 -0.30954 -0.12711 0.25804 -0.69601 -0.45647 -0.29664 -0.014404 -0.51051 -0.30239 -0.33664 -0.18239 -0.17085 -0.044301 -0.065513 0.023448 -0.37423 0.97996 0.3888 0.30359 0.0030172 -0.034303 -0.38267 0.4741 0.41192 -0.0244 -0.2327 0.13651 0.13361 -0.4622 0.30736 0.17665 -0.47001 -0.1837 -0.37176 -0.20878 
truck -0.35539 0.1725 0.27803 0.20304 -0.11777 0.068741 -0.24336 0.11318 -0.061173 -0.01902 -0.18923 -0.40733 0.14913 0.049567 -0.30833 0.0052252 -0.20825 0.33282 -0.27803 -0.11994 0.41192 -0.40053 0.057576 0.38611 -0.28561 0.049767 0.29877 0.074816 0.21246 0.084475 0.11966 0.61286 -0.46616 -0.29969 0.90123 0.5464 -0.19206 0.045705 0.24533 0.11262 -0.24055 0.28639 -0.10367 -0.29211 -0.33651 0.57573 0.61527 -0.44165 0.34355 0.24677 -0.19183 0.12397 -0.48744 0.0004271 0.15974 0.29311 -0.0034341 -0.096544 0.72002 0.063709 0.051321 -0.391 0.39927 0.23352 0.16317 -0.47033 0.36243 -0.11088 -0.016871 -0.29632 -0.48778 -0.19131 -0.057409 -0.27249 0.088945 0.24461 0.015826 0.17232 -0.34507 0.61027 -0.54415 0.51285 0.066241 -0.25688 0.34275 -0.21358 -0.38289 -0.10661 -0.25541 -0.050597 -0.11159 -0.14669 0.45765 -1.1905 0.59009 -0.087238 -0.3101 -0.25854 -0.019907 0.18703 
bottle 0.053392 0.40986 -0.18572 -0.20379 0.037637 -0.37781 0.032522 0.035465 -0.1233 -0.29437 0.15843 -0.67477 -0.078509 -0.17833 -0.1048 0.44378 0.15992 -0.49942 -0.27123 -0.2611 0.62267 0.11856 -0.38816 -0.013439 -0.26328 -0.71894 0.27833 0.12593 0.75911 0.042977 -0.46076 0.78322 -0.18768 -0.12591 0.1573 0.1793 -0.22147 -0.26366 0.20961 0.76512 -0.25332 -0.03532 0.37364 0.53582 -0.012232 0.33991 0.69078 0.385 -0.40179 0.5069 -0.49607 0.20664 -0.046573 0.42581 0.20616 -0.033637 0.15331 -0.80718 0.26197 0.47315 0.22458 -0.6098 0.50464 -0.032496 -0.076549 -0.1548 0.14438 0.18568 -0.14336 -0.72989 -0.031721 0.25345 0.48115 0.086555 -0.18726 0.22551 -0.6213 0.00021087 -0.32125 0.09846 -0.46816 0.19188 -0.34001 -0.14368 -0.026669 0.32964 -0.35144 0.048419 -0.50994 -0.52935 -0.15406 0.012606 0.054425 -0.47885 -0.051022 -0.3447 -0.33974 -0.26316 -0.44783 0.53614 
car -0.28816 0.21766 0.035417 0.083307 -0.12357 0.13108 -0.037332 0.075999 0.092993 0.013196 -0.47357 -0.61206 0.27828 0.20598 -0.33204 -0.19979 -0.12873 0.17712 -0.09802 0.056264 0.11431 -0.17577 0.28235 0.064977 -0.16953 0.11123 0.46032 0.33678 0.17963 -0.22135 -0.27524 0.22658 -0.1771 -0.27059 0.80447 0.60921 -0.040409 -0.11201 0.24189 0.32459 -0.10055 0.26962 0.091126 -0.13005 -0.23252 0.37782 0.97328 -0.48654 0.17458 -0.084994 -0.3188 0.15405 -0.30253 0.044651 -0.4405 0.30059 0.11093 -0.30246 0.42759 -0.13512 0.035447 -0.59749 0.31323 0.26608 0.16104 -0.40851 -0.054707 -0.15335 -0.11519 -0.18139 -0.61829 -0.44971 0.096421 -0.02738 0.13484 0.43958 -0.13923 0.024723 -0.40131 0.37194 -0.51348 0.31281 -0.067825 -0.10222 0.47373 0.038476 -0.67351 -0.24849 -0.57024 -0.11313 -0.22453 -0.14825 0.28217 -1.1086 0.3881 -0.041519 -0.24636 -0.35495 0.16116 -0.018826 
dresser -0.14545 0.10163 -0.3246 -0.036083 0.35738 -0.088818 -0.57932 -0.10708 0.25465 0.10352 -0.49889 0.060348 -0.11805 0.016668 0.26971 0.023257 -0.46207 -0.090635 -0.34433 -0.27611 -0.085532 -0.40054 -0.51845 0.29525 -0.025789 0.0066365 0.4123 0.059447 0.45751 0.23595 -0.19703 -0.21506 -0.86081 -0.35872 0.57235 0.16869 -0.21538 -0.0076642 -0.074131 0.087404 -0.37244 -0.41412 0.24576 -0.074106 0.20806 0.054008 0.52284 0.25901 -0.26273 0.21704 -0.62682 0.14177 0.38066 0.57658 -0.12222 0.053789 0.12718 -0.78536 -0.0087432 0.47128 0.27601 -1.0248 0.61498 -0.14568 0.0022075 -0.35872 0.27101 -0.096829 -0.094803 0.35687 0.027079 0.28199 0.31596 0.16575 -0.029565 0.39893 0.052992 -0.15336 -0.92205 0.17685 -0.67291 0.4966 -0.13547 0.19767 0.12911 0.035896 -0.13276 0.066499 0.22328 -0.3535 0.090789 -0.061889 0.53777 -0.97599 0.30967 -0.19215 -0.84504 -0.058491 -0.29838 0.21661 
igloo 0.23814 0.082647 0.51689 0.29339 0.36043 -0.10052 -0.28584 -0.29446 -0.36692 0.023625 0.077834 -0.4803 0.84972 -0.13048 -0.33102 0.56302 -0.016166 0.034026 0.058438 -0.093317 0.21663 -0.33943 -0.29328 0.46158 -0.66713 0.14754 0.14991 -0.56384 0.40933 0.012857 0.093284 0.7778 -0.61534 0.36778 0.48393 0.027639 -0.26474 0.26858 0.60385 0.41424 -0.37373 0.16089 -0.10243 0.19031 -0.22103 0.53198 0.69048 -0.031369 0.087459 0.44808 -0.11746 0.28611 0.23646 0.043413 0.063021 -0.18665 -0.071098 -0.8008 0.47437 0.24266 0.22265 -0.59643 0.60587 0.16901 -0.35755 -0.24338 -0.1736 -0.22292 0.35074 -0.39352 0.15257 0.018285 -0.39486 0.098162 0.030733 0.20355 0.38517 0.29064 -0.2216 0.070632 -0.29681 0.66104 -0.020287 -0.75083 -0.76041 -0.37236 -0.028147 -0.22896 -0.22188 0.37549 0.28804 0.26643 0.72226 -0.35075 1.0162 -0.099627 -0.30963 -0.14928 -0.39045 0.7919 
